//Numpy array shape [57, 32]
//Min -3.875000000000
//Max 3.625000000000
//Number of zeros 1087

#ifndef W2_H_
#define W2_H_

#ifndef __SYNTHESIS__
weight2_t w2[1824];
#else
weight2_t w2[1824] = {0.000, 0.000, 0.000, 0.125, 0.000, -0.125, 0.125, 0.000, 0.000, 0.000, 0.000, 0.000, 0.000, 0.000, 0.000, 0.125, 0.000, 0.000, 0.125, 0.000, 0.000, 0.000, 0.000, 0.000, 0.000, -0.125, 0.000, 0.000, 0.000, 0.000, 0.000, 0.000, 0.000, 0.000, 0.000, -0.125, 0.125, 0.000, 0.000, 0.000, 0.000, -0.125, -0.125, 0.000, 0.000, -0.125, -0.125, 0.000, 0.000, -0.125, 0.000, 0.000, -0.125, 0.125, 0.125, 0.000, 0.000, 0.000, -0.125, 0.125, 0.125, 0.000, 0.000, -0.125, -0.125, 0.000, 0.000, 0.000, 0.000, 0.000, 0.125, 0.000, 0.000, 0.000, 0.000, 0.000, 0.000, 0.000, 0.000, -0.125, 0.000, 0.000, -0.125, -0.125, 0.000, 0.000, 0.000, 0.000, 0.000, 0.000, 0.000, 0.125, 0.000, 0.000, 0.000, 0.000, 0.000, 0.000, -0.125, 0.000, 0.750, 0.000, 0.000, 0.000, 0.250, -0.125, 0.125, 0.000, 0.000, 0.000, 0.000, -0.125, 0.000, 0.000, -0.125, -0.125, 0.125, 0.000, 0.750, 0.000, 0.000, 0.000, 0.000, 0.000, 0.000, 0.000, 0.000, 0.000, 0.000, 0.125, -0.125, 0.250, -1.875, -0.125, 0.000, 0.000, 0.000, 0.000, -0.125, 0.000, 0.000, 0.000, -0.125, 0.125, 0.000, 0.125, 0.000, 0.000, 0.125, 0.000, 1.875, -0.125, 0.125, 0.000, 0.000, 0.000, -0.125, 0.250, 0.000, 0.000, 0.000, 0.000, 0.000, 0.000, 0.000, 0.000, 0.000, 0.000, 0.125, 0.000, 0.000, 0.000, 0.000, 0.000, -0.125, 0.000, 0.000, 0.000, 0.000, 0.000, 0.000, 0.000, 0.000, 0.000, 0.000, 0.000, 0.000, 0.000, 0.000, 0.000, 0.000, 0.000, -0.125, 0.000, 0.000, -0.125, 0.000, 0.000, 0.000, 0.000, 0.000, 0.000, 0.000, 0.000, 0.000, 0.000, 0.125, 0.000, -0.125, 0.000, 0.000, -0.125, 0.000, 0.000, 0.125, 0.000, 0.000, 0.000, 0.750, 0.000, 0.750, 0.000, -0.125, 0.000, 0.500, 0.000, -0.125, 0.125, 0.000, 0.125, 0.000, 0.000, 0.125, 0.000, -0.250, 0.000, 0.125, 0.000, -0.125, 0.125, 0.125, 0.125, 0.125, -0.500, 0.000, -0.125, 0.000, 0.000, 0.000, 0.000, -2.125, -0.125, 2.250, 0.000, 0.000, 0.000, 0.000, 0.125, 0.000, 0.000, 0.000, 0.000, -0.125, 0.000, 0.125, 0.000, 0.000, 0.125, 0.000, 0.000, 0.000, 0.000, 0.000, 0.000, 0.000, 0.000, 0.000, 0.000, 0.000, 0.000, 0.000, 0.000, -0.125, 0.000, -0.125, 0.000, 0.000, 0.000, -0.125, 0.125, -0.125, 0.000, 0.000, 0.000, 0.000, 0.000, 0.000, 0.125, 0.000, 0.000, 0.000, 0.000, 0.000, -0.125, 0.000, -0.125, 0.000, 0.000, 0.000, 0.000, 0.000, -0.125, 0.000, 0.000, 0.000, 0.000, 0.000, -0.125, 0.000, 0.000, 0.000, 0.375, 0.125, 0.000, 0.000, -0.250, -0.250, 0.125, -0.250, -0.375, -0.125, -0.125, 0.125, 0.000, 0.000, 0.000, 0.500, -0.125, -0.125, 0.125, -0.125, 1.250, 0.000, -0.125, 0.125, 0.000, 0.000, -0.125, 0.000, -0.250, 0.000, 0.000, 0.000, 0.000, 0.000, 0.000, 0.000, 0.000, 0.000, 0.000, 0.125, 0.000, 0.000, 0.000, 0.000, 0.000, 0.000, 0.000, 0.000, 0.000, 0.000, 0.000, 0.000, 0.000, 0.000, 0.000, 0.000, 0.000, -0.125, 0.000, 0.000, 0.125, 0.000, 0.000, -0.125, 0.000, 0.000, -0.125, 0.000, 0.000, -0.125, 0.000, 0.125, -0.125, 0.000, 0.000, -0.125, 0.000, 0.125, -0.125, 0.000, -0.125, 0.000, 0.000, -0.125, 0.000, 0.000, 0.000, 0.000, 0.000, 0.000, 0.125, 0.125, 0.000, -0.125, 0.000, 0.250, -0.125, 0.250, 0.250, -0.125, 0.000, 0.125, 0.125, -0.875, -0.625, 0.000, 0.125, 0.125, 0.000, -0.125, 0.125, -0.125, -0.125, 0.000, 0.000, 0.000, -0.375, -0.125, 0.125, 0.000, 0.000, 0.000, 0.000, 0.125, 0.250, 0.125, 0.000, 0.125, 0.000, -0.125, 0.000, 0.125, 0.000, 0.000, 0.000, 0.125, 0.000, 0.125, 0.000, 0.000, 0.000, 0.000, 0.000, 0.000, 0.000, 0.000, 0.000, 0.000, 0.000, 0.000, 0.125, 0.125, 0.000, 0.000, 0.000, 0.000, 0.000, 0.000, 0.000, 0.000, 0.125, -0.125, -0.125, 0.000, -0.125, 0.000, 0.125, -0.125, -0.125, -0.125, 0.000, -0.375, 0.000, 0.125, -0.125, 0.000, 0.000, 0.500, 0.375, -0.125, -0.125, -0.125, 0.625, 0.000, 0.000, -0.125, 0.000, 0.000, 0.000, 0.000, 0.000, 0.250, -0.500, 0.000, 0.125, 0.000, 0.000, 0.000, 0.125, 0.000, 0.125, 0.250, 0.000, -0.500, 0.000, -0.125, 0.250, 0.000, 0.000, 1.125, 0.250, 0.000, 0.125, 0.000, -1.250, 0.000, 0.000, 0.000, -0.125, -0.125, 0.125, 0.000, 0.000, 0.000, 0.000, 0.000, 0.125, 0.125, 0.000, 0.000, 0.000, 0.125, 0.125, 0.000, 0.000, 0.000, -0.125, 0.000, 0.000, 0.125, 0.000, -0.125, -0.125, 0.125, 0.125, 0.000, -0.125, 0.000, 0.000, 0.000, 0.000, 0.125, 0.000, 0.000, 0.000, -0.125, -0.125, -0.250, 0.000, 0.375, -0.125, 0.000, 0.000, 0.250, -0.750, 0.000, 0.125, -0.250, 0.125, -0.125, -0.125, 0.000, 0.000, 0.000, 0.000, 0.000, 0.000, 0.375, 0.000, 0.000, -0.125, 0.000, 0.000, 0.000, 0.000, 0.000, 0.000, 0.125, 0.000, 0.250, -0.125, -1.125, 0.250, 0.000, -0.250, 0.750, 0.250, 0.000, 0.000, 0.250, 0.000, -0.125, 0.250, 0.000, 0.000, 0.000, -0.125, 0.000, -0.125, -1.125, -0.125, 0.000, -0.125, 0.000, 0.000, 0.000, 0.000, 0.000, 0.000, 0.000, 0.125, -0.250, 0.000, -0.250, -0.125, 0.000, 0.250, -0.500, -0.500, 0.000, -0.250, -0.125, 0.000, 0.000, 0.000, 0.000, -0.125, -0.125, 0.000, -0.125, 0.125, -0.375, 0.000, 0.000, 0.000, 0.125, 0.000, 0.000, 0.000, 0.000, 0.000, 0.000, 0.125, -0.125, -0.125, 0.000, -0.125, 0.000, 0.250, 0.000, 0.000, -0.125, 0.250, -0.250, -0.125, -0.125, -0.125, 0.000, -0.625, -0.250, -0.125, -0.125, 0.125, 0.125, -0.375, 0.000, -0.125, 0.000, -0.125, -0.125, -0.250, 0.000, 0.000, 0.000, -0.250, 0.125, 0.000, -0.125, 0.125, 0.000, 0.500, 0.125, -0.125, 0.000, 0.375, 0.000, 0.000, 0.000, 0.000, 0.000, 0.000, 0.000, -0.125, 0.000, -0.125, 0.125, -0.125, 0.000, -0.125, 0.000, 0.000, 0.125, 0.000, 0.000, 0.000, 0.000, 0.000, -0.125, 0.000, 0.000, -0.125, 0.000, -0.125, 0.000, 0.000, -0.125, 0.000, 0.000, 0.000, 0.000, -0.125, -0.125, -0.625, -0.250, -0.500, -0.125, -0.125, 0.000, -0.375, 0.000, 0.000, 0.000, -0.250, 0.000, 0.000, 0.000, 0.000, -0.125, 0.000, -0.125, 0.000, 0.125, -0.250, -0.250, 0.000, 0.000, -0.125, -0.125, 0.000, -0.250, 0.000, -0.250, -0.250, -0.125, -0.125, -0.250, -0.125, -0.125, -0.125, 0.000, -0.125, 0.000, -0.125, -0.250, -0.125, -0.125, 0.000, 0.000, -0.125, 0.125, 0.000, 0.000, -0.125, 0.000, 0.000, 0.000, 0.000, 0.000, 0.000, 0.000, 0.125, 0.000, 0.000, 0.000, 0.000, 0.000, 0.000, 0.000, 0.000, 0.000, 0.000, 0.125, 0.000, -0.125, 0.125, 0.000, 0.000, 0.000, 0.000, 0.000, 0.000, -0.125, 0.000, 0.000, -0.125, -0.125, -0.125, -0.125, 0.125, 0.000, -0.125, -0.125, 0.000, 0.000, -0.250, -0.125, 0.000, 0.000, -0.250, -0.125, -0.125, 0.125, 0.125, 0.000, -0.125, -0.125, -0.125, -0.125, -0.250, -0.250, -0.125, 0.125, -0.250, 0.000, 0.125, -0.125, 0.000, 0.000, 0.500, 0.000, 1.000, 0.125, 0.000, -0.125, 0.875, 0.125, 0.750, 0.000, -0.125, -0.125, -0.125, -0.125, 0.000, 0.625, 0.000, -0.125, 0.000, -0.125, 1.000, 0.000, -0.125, 0.000, 0.000, 0.000, -0.250, -0.125, -0.250, 0.125, 0.000, 0.000, -0.500, 0.000, -1.375, -0.250, 0.250, 0.000, 1.125, 0.000, -3.875, 0.000, 0.000, 0.000, 0.000, 0.125, 0.250, -0.875, 0.000, -0.125, 0.000, 0.375, 3.625, 0.000, 0.000, 0.000, -0.125, 0.000, 0.375, 0.000, 0.000, 0.000, 0.000, 0.000, 0.000, 0.000, 0.000, 0.000, 0.000, 0.000, 0.000, 0.000, 0.000, 0.000, -0.125, 0.000, -0.125, 0.000, 0.000, 0.000, 0.000, 0.000, 0.000, 0.000, 0.000, 0.000, 0.000, 0.000, 0.000, 0.000, 0.000, -0.125, -0.125, -0.125, 0.125, 0.000, 0.625, 0.000, -0.125, 0.000, -0.125, 0.000, 0.250, 0.125, -0.250, -0.125, 0.125, 0.000, 0.000, 0.000, 0.000, 0.875, 0.125, -0.125, 0.000, 1.250, 0.000, 0.000, 0.000, -0.125, -0.125, -0.250, 0.875, 0.000, 0.000, 0.125, -0.125, 0.125, -1.000, -0.125, 0.000, 0.125, 0.000, 0.000, 0.000, 0.000, -0.125, 0.250, -0.125, -0.125, 0.000, 0.000, -0.125, 1.250, -0.125, 0.000, 0.000, -3.375, 0.000, 0.000, 0.000, -0.125, -0.125, -0.125, 2.875, -0.125, 0.000, 0.000, 0.000, 0.000, -0.125, 0.000, -0.125, 0.000, 0.000, 0.000, 0.000, 0.000, 0.000, 0.000, 0.000, 0.000, -0.125, 0.000, -0.125, 0.000, 0.000, 0.000, 0.000, 0.000, 0.000, 0.000, 0.000, 0.000, 0.000, 0.000, -0.125, 0.000, 0.000, 0.125, 0.000, 0.000, 0.000, 1.250, -0.125, 0.000, 0.000, 0.000, 0.000, -0.125, 0.125, 0.000, -0.250, 1.250, 0.000, 0.000, 0.000, 0.125, 0.000, 0.000, 0.000, 0.125, 0.000, 0.000, 0.125, 0.000, 0.000, 0.000, 0.125, 0.000, 0.000, 0.000, 0.125, 0.000, 0.125, 3.250, 0.125, 0.125, 0.000, 0.000, 0.000, 0.000, 0.000, -0.125, 0.000, -3.125, 0.125, 0.000, 0.000, 0.000, 0.250, 0.000, 0.000, 0.000, 0.000, 0.000, 0.000, 0.000, -0.125, 0.000, 0.000, 0.000, 0.125, 0.000, 0.000, 0.000, 0.000, 0.000, 0.000, 0.000, 0.000, 0.000, 0.125, 0.000, 0.000, 0.125, 0.000, -0.125, -0.125, 0.000, 0.000, 0.000, 0.000, 0.000, -0.125, 0.000, 0.000, 0.000, 0.125, 0.000, 0.000, 0.000, 0.000, 0.000, 0.125, 0.000, 0.875, 0.000, 0.000, 0.125, 0.000, -0.125, 0.000, 0.000, 0.000, 0.000, 0.000, 0.500, 0.000, 0.125, -0.250, 0.000, 0.000, 0.000, 0.000, 0.000, 0.000, 0.000, 0.000, 0.000, 0.125, 0.000, -0.125, 1.000, 0.000, 0.000, -0.125, 0.125, -2.500, 0.000, 0.125, -0.125, 0.000, -0.125, 0.125, 0.000, 0.000, 0.000, 0.000, -2.125, 0.000, 0.000, 0.000, 0.000, 0.125, 0.250, 0.125, 0.000, 0.000, 0.000, 0.000, 0.000, 1.000, 0.000, 0.000, 3.375, -0.125, -0.250, 0.000, 0.000, 0.000, 0.000, 0.000, 0.000, -0.125, 0.000, 0.000, 0.000, 0.000, 0.000, 0.000, 0.000, -0.125, 0.000, -0.125, 0.000, -0.125, 0.000, 0.000, 0.000, 0.000, 0.000, 0.000, 0.000, 0.125, 0.125, 0.000, -0.125, 0.000, -0.250, 0.375, -0.125, -0.125, 0.000, 0.000, 0.000, 0.000, 0.125, -0.125, 0.875, 0.000, 0.750, 0.000, 0.250, -0.125, 0.125, 0.000, 0.500, -0.500, 0.000, 0.000, 0.000, -0.250, -0.125, -0.125, -0.125, 0.375, 0.000, -0.125, -0.125, 0.000, -0.250, 0.875, 0.125, 0.375, 0.000, 0.125, 0.125, 0.000, -0.500, 0.250, 3.125, 0.125, -2.500, -0.125, -0.500, 0.000, 0.000, 0.250, -1.250, 0.875, 0.000, 0.000, 0.000, -0.375, -0.125, 0.000, 0.000, -0.625, 0.125, 0.000, 0.250, 0.000, -0.250, -0.125, 0.000, -0.125, 0.000, 0.000, 0.000, 0.000, 0.000, 0.000, 0.000, 0.000, 0.000, 0.125, 0.125, -0.125, 0.000, -0.125, -0.125, -0.125, 0.000, 0.000, 0.125, 0.000, 0.125, 0.000, 0.000, 0.125, 0.000, 0.000, -0.125, 0.000, -0.375, 0.250, 0.000, 0.000, 0.000, 0.000, 0.000, 0.000, 0.000, -0.125, 0.000, 0.125, 0.000, 0.000, 0.000, 0.625, 0.000, -0.125, 0.000, -0.250, 0.000, 0.000, -0.125, -0.250, -0.125, 0.000, 0.000, 0.250, 0.000, -0.125, -0.125, 0.000, 0.125, -0.375, 0.125, 0.375, 0.000, 0.000, 0.000, 0.125, -0.125, 0.125, 0.125, -0.125, 0.000, 0.000, -0.375, -1.250, 0.000, 0.250, 0.250, 0.125, 0.000, 0.125, 0.125, 0.250, 0.000, 0.000, 0.000, -0.375, 0.000, 0.125, 0.250, 0.125, -0.250, 0.000, -0.125, -0.125, 0.000, 0.000, 0.000, -0.125, 0.000, 0.000, 0.000, 0.000, 0.000, 0.000, 0.125, -0.250, 0.000, -0.125, 0.000, -0.250, 0.125, 0.000, 0.000, 0.000, 0.000, 0.000, 0.000, 0.125, 0.000, 0.000, 0.000, 0.000, -0.125, 0.000, 0.750, -0.125, 0.000, 0.000, 0.000, 0.000, 0.000, -0.125, 0.000, -0.125, 0.000, 0.125, 0.125, 0.000, 0.000, 0.375, 0.000, -0.375, 0.000, 0.000, 0.000, 0.000, 0.000, 0.000, 0.000, 0.000, -0.125, 0.875, 0.000, 0.125, -0.125, 0.000, 1.625, 0.125, 0.000, 0.125, 0.000, 0.000, 0.500, -0.625, 0.000, 0.000, 0.000, -0.125, -0.125, -0.125, 0.000, 0.500, 0.000, -0.125, -0.125, -0.125, 0.000, 0.000, 0.000, 0.125, 0.000, -0.250, -0.125, -1.875, 0.125, 0.000, -0.125, 0.000, 0.000, 0.000, 0.000, 0.000, 0.000, 0.000, 0.000, 0.000, 0.000, 0.000, 0.000, 0.000, 0.000, -0.125, 0.000, -0.125, -0.125, -0.125, 0.000, 0.000, 0.000, 0.000, 0.000, 0.000, 0.000, 0.000, 0.000, 0.000, 0.000, 0.000, 0.000, 0.125, 0.000, 0.000, -0.125, 0.125, 0.000, 0.125, -0.500, 0.625, -0.125, 0.125, 0.125, -0.125, 0.000, 0.000, -0.125, 0.250, -0.125, 0.000, 0.125, 0.125, 0.000, -0.250, 0.000, -0.125, 0.000, 0.125, -0.125, 0.000, -0.125, -0.125, -0.125, 0.125, 0.625, 0.375, 0.000, 0.125, 0.000, -0.500, -0.625, 1.250, 0.000, -0.250, 0.500, 0.125, -0.500, 0.250, 0.000, -1.500, 0.125, -0.125, 0.250, 0.000, 0.000, -0.125, -0.125, 0.125, 0.000, -0.500, 0.000, -0.125, 0.250, 0.000, -0.125, 0.000, 0.000, 0.000, 0.000, -0.125, 0.000, -0.125, 0.000, -0.250, 0.000, -0.125, 0.125, 0.000, 0.000, 0.000, 0.000, -0.125, 0.000, -0.250, 0.000, 0.000, 0.000, 0.000, 0.000, 0.000, 0.000, 0.000, 0.000, 0.000, 0.000, 0.000, 0.625, 0.000, 0.000, 0.000, -0.125, 0.000, 0.000, 0.000, 0.000, 0.000, -0.125, 0.000, 0.125, 0.000, 0.000, 0.000, 0.000, 0.000, -0.250, 0.625, -0.125, 0.000, 0.000, 0.125, 0.000, 0.000, 0.000, 0.000, 0.000, 0.000, 0.000, 0.000, -1.000, -0.125, 0.000, 0.125, 0.125, 0.125, 0.000, 0.000, 0.000, -0.125, 0.000, -0.125, 0.250, 0.000, 0.000, 0.125, 0.000, 0.125, -0.250, 1.250, 0.125, 0.000, -0.125, 0.125, -0.125, 0.000, 0.000, -0.250, 0.125, 0.125, 0.125, 0.000, -0.125, 0.000, 0.000, 0.000, 0.000, 0.000, 0.000, -0.125, 0.000, -0.125, 0.000, 0.000, 0.000, 0.125, 0.000, 0.000, 0.000, 0.000, 0.000, -0.250, 0.000, 0.000, 0.000, 0.000, 0.000, 0.000, -0.125, 0.000, 0.000, 0.000, 0.000, 0.000, 0.000, 0.000, 0.000, 0.000, -0.125, 0.125, -0.125, 0.000, 0.000, 0.000, -0.125, 0.125, 0.000, -0.125, 0.000, 0.000, 0.000, 0.000, 0.000, 0.125, 0.125, 0.125, 0.000, 0.000, -0.125, 0.000, 0.000, 0.000, 0.000, -0.125, 0.000, 0.000, 0.000, 0.125, 0.000, 0.000, 0.125, 0.125, 0.000, 0.000, 0.000, -0.125, 0.000, -0.125, 0.000, -0.125, 0.000, 0.000, -0.125, 0.125, 0.000, 0.000, 0.000, -0.250, 0.000, 0.000, 0.000, 0.125, 0.000, 0.000, 0.000, 0.000, 0.000, 0.125, 0.000, 0.000, 0.000, 0.000, 0.000, -0.125, 0.125, 0.000, 0.000, 0.000, 0.000, -0.125, 0.000, 0.000, 0.000, 0.000, 0.000, 0.000, 0.000, 0.000, 0.000, 0.000, 0.000, -0.125, 0.000, 0.000, 0.000, 0.000, 0.000, 0.125, 0.000, 0.000};
#endif

#endif
