//Numpy array shape [57, 32]
//Min -1.625000000000
//Max 1.500000000000
//Number of zeros 904

#ifndef W2_H_
#define W2_H_

#ifndef __SYNTHESIS__
weight2_t w2[1824];
#else
weight2_t w2[1824] = {0.125, 0.000, 0.625, -0.250, 0.000, -0.250, -0.250, 0.000, 0.000, 0.000, 0.000, 0.375, 0.000, -0.125, -0.250, 0.000, 0.000, 0.000, 0.250, 0.000, 0.000, -0.125, 0.000, 0.250, 0.125, 0.250, 0.000, -0.250, 0.000, -0.125, 0.000, -0.125, 0.000, 0.125, 0.000, -0.500, 0.000, -0.250, 0.250, 0.000, 0.125, 0.000, 0.000, 0.000, 0.125, 0.000, 0.000, 0.000, 0.000, 0.000, -0.375, 0.000, 0.125, -0.125, 0.000, -0.250, 0.000, 0.625, 0.125, 0.125, -0.125, -0.375, 0.000, 0.000, 0.125, 0.000, 0.125, 0.000, 0.125, 0.000, -0.125, 0.125, 0.250, 0.250, 0.000, 0.000, 0.000, 0.000, -0.125, -0.125, 0.125, 0.250, 0.000, 0.000, 0.125, 0.125, -0.125, 0.250, 0.000, 0.125, 0.125, -0.125, 0.250, 0.125, -0.250, 0.125, 0.000, 0.000, -0.125, 0.125, 0.000, 0.000, 0.000, 0.000, 0.000, 0.000, 0.000, -0.125, 0.000, 0.125, 0.000, 0.000, 0.000, 0.000, -0.125, 0.000, 0.000, 0.000, 0.000, 0.000, 0.000, 0.000, 0.000, 0.000, 0.000, 0.000, 0.000, 0.000, 0.000, -0.500, 0.250, 0.375, 0.125, 0.125, 0.125, 0.000, 0.000, 0.500, 0.000, 0.000, -0.125, 0.125, 0.000, 0.000, 0.000, 0.000, -0.250, -0.125, 0.000, 0.000, 0.000, 0.125, 0.125, 0.125, 0.125, -0.750, -0.375, -0.125, 0.000, 0.000, 0.000, -0.375, -0.500, -0.375, 0.000, 0.000, 0.125, 0.125, 0.000, 0.625, 0.000, 0.500, 0.000, -0.250, 0.000, 0.000, 0.000, 0.000, 0.000, 0.000, 0.000, 0.125, 0.000, 0.375, 0.000, -0.125, 0.125, 0.000, 0.375, -0.250, 0.000, 0.000, -0.125, 0.000, -0.125, 0.000, 0.000, 0.250, -0.125, 0.000, 0.000, 0.000, 0.000, -0.125, 0.000, 0.125, 0.125, 0.000, 0.000, 0.000, -0.125, 0.125, 0.000, 0.000, 0.000, 0.000, 0.000, 0.000, -0.125, 0.000, 0.000, 0.000, 0.000, 0.000, 0.125, 0.000, 0.000, 0.000, 0.000, 0.125, 0.000, 0.000, 0.000, 0.000, 0.000, 0.000, -0.125, 0.000, -0.125, -0.125, 0.000, 0.000, 0.000, 0.125, 0.000, 0.000, 0.000, 0.000, 0.000, 0.000, 0.000, 0.000, 0.000, 0.125, 0.000, 0.000, 0.000, 0.250, -0.125, 0.500, 0.000, 0.000, 0.000, 0.000, 0.000, -0.375, 0.000, -0.250, 0.125, -0.250, 0.000, -0.125, 0.000, -0.125, 0.000, 0.000, 0.000, 0.000, 0.000, 0.375, 0.000, 0.500, 0.000, -0.250, 0.500, -0.500, 0.000, 0.000, 0.125, 0.125, -0.125, 0.125, 0.375, 0.000, 0.000, 0.000, 0.750, 0.000, 0.000, -0.125, 0.000, 0.000, 0.000, 0.000, 0.000, 0.000, 0.000, 0.000, -0.250, -0.125, 0.000, 0.000, 0.000, -0.125, 0.000, 0.000, -0.125, 0.000, -0.125, 0.000, 0.000, -0.125, 0.000, 0.000, -0.125, 0.000, 0.000, 0.000, -0.250, 0.000, 0.000, 0.000, 0.000, 0.000, 0.000, 0.000, 0.375, 0.000, 0.000, 0.000, -0.750, 0.000, 0.000, 0.000, -0.125, 0.000, 0.000, 0.000, 0.000, 0.000, -0.250, 0.000, 0.125, -0.250, 0.000, 0.000, 0.000, 0.250, 0.000, 0.000, 0.000, 0.250, 0.000, -0.375, -0.250, 0.000, -0.250, 0.000, 0.000, 0.000, 0.125, 0.000, 0.000, 0.000, 0.000, -0.125, 0.125, 0.125, 0.125, 0.250, 0.125, 0.000, 0.000, 0.000, 0.000, 0.125, -0.375, 0.125, 0.000, -0.250, 0.125, 0.000, 0.000, -0.125, 0.000, 0.250, 0.125, 0.125, -0.250, 0.000, 0.000, -0.125, 0.125, -0.250, 0.000, 0.000, 0.000, 0.000, -0.250, -0.125, 0.250, -0.125, 0.000, 0.125, 0.125, 0.000, -0.125, -0.125, 0.125, 0.125, 0.000, -0.375, 0.125, 0.000, 0.125, 0.250, 0.000, -0.375, -0.250, 0.125, 0.125, 0.000, 0.000, 0.000, 0.000, -0.250, 0.000, -0.125, 0.125, 0.125, 0.125, -0.125, 0.125, 0.375, 0.125, 0.125, 0.000, 0.125, 0.000, -0.125, 0.000, 0.000, 0.000, 0.000, 0.000, 0.000, 0.000, 0.125, 0.125, -0.125, 0.000, 0.000, -0.125, 0.000, 0.000, 0.000, 0.000, 0.000, 0.000, -0.125, 0.000, 0.000, 0.000, 0.000, 0.125, 0.125, -0.125, 0.000, 0.000, 0.000, 0.500, 0.125, -0.250, 0.125, 0.125, 0.000, 0.125, 0.000, 0.000, -0.250, 0.250, 0.125, 0.125, 0.250, -0.375, -0.375, 0.000, 0.500, 0.000, -0.375, 0.125, -0.125, -0.500, 0.500, 0.250, -0.250, 0.000, 0.125, 0.000, 0.125, 0.000, 0.250, -0.500, 0.000, 0.000, 0.125, 0.000, -0.500, 0.125, -0.250, 0.125, 0.125, 0.250, -0.125, 0.250, -0.125, 0.125, -0.625, 0.000, -0.250, 0.000, 0.750, 0.125, -0.125, -0.125, 0.125, -0.125, -0.250, 0.000, 0.250, 0.000, 0.375, -0.125, 0.500, -0.250, 0.125, -0.250, 0.000, 0.000, 0.000, 0.125, 0.250, -0.125, -0.125, 0.000, 0.625, -0.750, -0.250, 0.125, 0.125, 0.000, 0.250, 0.000, 0.125, 0.000, 0.000, 0.250, -0.250, 0.500, -0.250, 0.000, -0.250, 0.125, 0.000, 0.000, 0.375, 0.375, 0.375, -0.250, 0.125, 0.000, -0.250, 0.500, 0.000, 0.000, -0.375, 0.000, -0.375, 0.000, 0.125, -0.250, 0.250, 0.000, 0.250, -0.625, 0.375, 0.125, -0.500, 0.000, -0.125, 0.250, 0.125, 0.375, -0.125, -0.125, -0.250, -0.375, -0.125, 0.125, -0.500, -0.125, -0.250, -0.125, -0.125, 0.875, 0.000, 0.000, 0.500, 0.125, 0.000, 0.000, -0.125, 0.000, 0.125, 0.000, -0.125, -0.875, -0.125, -0.125, 0.375, 0.000, -0.125, 0.125, -0.250, -0.500, 0.000, 0.000, 0.125, 0.000, 0.250, -0.125, 0.125, -0.625, 0.000, 0.000, -0.250, -0.500, 0.125, 0.000, 0.000, 0.375, -0.125, -0.125, 0.250, 0.000, 0.250, 0.000, 0.125, 0.500, 0.125, 0.125, 0.750, 0.125, -0.125, 0.375, 0.000, -0.750, 0.000, -0.375, -0.125, -0.250, 0.000, 0.000, 0.375, 0.250, 0.000, -0.125, 0.000, 0.250, -0.125, 0.125, -0.500, -0.125, -0.125, -0.125, -0.125, 0.125, 0.000, -0.125, 0.000, -0.250, 0.000, 0.000, 0.500, 0.000, 0.000, -0.375, 0.000, -0.625, 0.125, 0.125, 0.125, 0.125, 0.000, 0.125, 0.125, 0.000, -0.125, 0.000, 0.875, 0.125, 0.000, 0.000, -0.125, 0.000, -0.125, 0.000, 0.375, -0.375, -0.125, 0.000, 0.000, 0.000, -0.750, 0.000, 0.000, 0.000, -0.250, 0.125, 0.000, 0.000, 0.000, -0.250, 0.125, -0.125, 0.250, -0.375, 0.125, -0.125, 0.125, 0.000, 0.375, 0.125, 0.000, -0.125, 0.000, 0.250, -0.125, -0.125, -0.500, 0.625, 0.125, 0.125, 0.125, -0.125, -0.250, 0.125, -0.125, 0.125, -0.125, -0.125, 0.000, 0.125, 0.000, 0.125, 0.000, -0.125, -0.125, -0.125, 0.125, -0.125, -0.250, 0.000, -0.250, -0.125, -0.250, -0.125, -0.250, 0.125, 0.125, 0.000, 0.000, 0.000, -0.125, 0.125, 0.125, 0.125, 0.125, 0.000, -0.125, 0.125, -0.125, -0.125, -0.250, 0.125, 0.375, 0.000, 0.250, -0.125, 0.125, 0.000, 0.000, 0.125, -0.125, 0.375, 0.000, 0.000, 0.000, -0.500, 0.125, -0.125, 0.125, 0.000, 0.000, 0.125, 0.000, 0.375, -0.125, 0.125, 0.125, 0.125, 0.250, 0.000, 0.000, 0.000, 0.125, -0.250, -0.125, 0.000, 0.125, -0.250, 0.000, 0.000, 0.000, 0.000, -0.250, 0.250, -0.125, 0.125, 0.125, -0.125, 0.000, -0.125, 0.000, -0.125, -0.125, 0.000, 0.000, -0.375, 0.125, -0.125, 0.125, -0.250, 0.000, 0.125, -0.250, 0.000, 0.250, 0.000, -0.250, -0.125, 0.125, 0.375, 0.125, 0.000, 0.000, -0.375, 0.125, 0.000, -0.125, 0.125, 0.000, -0.250, 0.000, 0.000, -0.125, 0.000, 0.125, -0.250, 0.000, 0.000, 0.000, 0.000, 0.000, 0.000, 0.000, 0.000, -0.125, -0.250, 0.000, 0.125, 0.000, -0.125, 0.125, 0.000, 0.000, -0.125, 0.000, 0.000, 0.125, 0.000, 0.000, -0.125, 0.000, 0.000, 0.000, 0.000, 0.000, 0.000, 0.000, 0.125, 0.000, 0.000, -0.125, 0.000, 0.125, 0.250, -0.125, 0.000, 0.250, 0.000, -0.375, -0.125, 0.000, 0.125, 0.250, 0.000, 0.000, 0.000, -0.125, 0.000, 0.000, 0.000, -0.125, 0.000, 0.000, 0.000, 0.000, 0.000, 0.000, -0.125, 0.000, 0.000, 0.000, 0.000, 0.125, 0.125, 0.000, 0.000, 0.125, 0.000, 0.000, -0.125, 0.000, 0.000, 0.000, 0.000, 0.000, 0.000, 0.125, 0.125, 0.000, 0.250, 0.000, 0.000, 0.000, 0.250, 0.000, 0.000, -0.125, 0.000, 0.125, 0.000, -0.125, -0.125, 0.000, 0.000, 0.000, -0.500, 0.000, 0.000, 0.375, 0.000, 0.250, 0.000, -0.125, -0.375, 0.125, 0.375, 0.125, 0.000, 0.000, -0.125, 0.000, -0.250, 0.000, 0.000, -0.125, -0.250, 0.000, 0.000, 0.125, 0.000, 0.000, 0.000, 0.125, 0.000, -0.125, 0.000, 0.000, 0.375, -0.125, 0.000, 0.625, 0.000, -0.250, 0.000, 0.250, -0.500, 0.000, -0.250, -0.125, 0.000, 0.125, 0.000, -1.000, 0.125, 0.125, 0.000, -0.125, 0.000, 0.000, 0.000, 0.625, 0.000, -0.500, 0.000, 0.125, -0.125, 0.000, 0.000, 0.125, 0.000, 0.000, 0.000, 0.000, 0.000, -0.125, -0.125, 0.125, 0.000, 0.750, 0.375, -0.250, 0.000, 0.000, 0.000, 0.000, -0.125, 0.125, 0.000, -0.125, 0.125, 0.000, 0.125, 0.000, 0.000, 0.000, 0.000, 0.000, 0.000, 0.000, -0.125, 0.000, 0.000, -0.125, 0.125, 0.000, 0.000, 0.000, 0.000, -0.125, 0.000, 0.000, 0.000, 0.000, 0.125, 0.000, 0.125, 0.000, -0.125, 0.125, 0.000, 0.000, -0.125, 0.000, 0.125, 0.000, -0.125, 0.000, -0.125, 0.000, 0.125, 0.000, 0.125, 0.000, 0.000, 0.125, -0.375, 0.000, 0.000, 0.000, 0.000, -0.250, 0.000, -0.125, 0.000, 0.125, 0.000, 0.000, -0.125, 0.000, -0.125, -0.125, 0.000, 0.000, 0.000, 0.000, 0.000, 0.000, 0.000, 0.000, 0.000, 0.000, 0.000, 0.000, 0.000, 0.000, 0.000, 0.000, 0.000, 0.000, 0.000, 0.000, 0.000, 0.000, 0.000, 0.000, 0.000, 0.000, 0.000, 0.000, -0.500, 0.000, 0.000, 0.125, 0.000, 0.625, 0.000, 0.000, 0.000, 0.000, 0.000, 0.000, 0.250, -0.500, 0.750, 0.000, 0.000, 0.125, 0.125, -0.500, 0.000, 0.000, 0.000, -0.375, 0.125, 0.125, 0.000, -0.125, 0.000, 0.000, 0.000, 0.000, 0.375, 0.125, 0.000, -0.125, 0.000, 1.125, 0.000, 0.125, 0.000, 0.000, 0.000, 0.000, -0.125, 0.250, -0.500, 0.000, 0.000, 0.000, 0.000, -0.750, 0.000, 0.000, 0.000, 0.250, 0.000, 0.000, 0.000, 0.000, 0.000, 0.000, 0.000, 0.000, -0.125, -0.125, -0.250, 0.000, 0.000, 0.000, -0.125, -0.125, 0.000, 0.125, 1.250, 0.000, 0.000, 0.000, 0.000, 0.000, -0.125, 0.000, -0.125, -0.125, 0.000, -0.125, 0.000, 0.125, -0.250, -0.125, 0.000, 0.125, 0.125, -0.125, -0.125, 0.000, 0.500, -0.250, 0.000, 0.000, -0.125, 0.375, -0.125, -0.125, -0.125, 0.375, -0.125, -0.500, -0.125, 0.125, 0.375, -0.125, -0.125, 0.000, 0.000, 0.625, 0.000, -0.125, 0.000, 0.000, -0.125, 0.000, -0.125, 0.375, 0.000, 0.000, 0.000, 0.000, -0.375, 0.000, 0.250, 0.375, 0.000, -0.375, 0.000, 0.000, 0.125, 0.125, 0.000, -0.375, -0.125, 0.000, -0.250, 0.000, 0.125, 0.000, 0.125, -0.250, 0.000, 0.000, 0.000, 0.000, 0.000, -0.125, 0.125, 0.250, 0.000, 0.250, 0.125, 0.000, -0.125, 0.000, -0.125, 0.000, 0.000, 0.000, 0.000, -1.375, 0.000, 0.000, 0.000, 0.000, 0.000, 0.000, 0.000, 1.375, 0.000, 0.750, 0.000, 0.000, 0.000, 0.125, -0.500, 0.250, -0.125, 0.125, 0.000, 0.000, 0.125, 0.000, 0.000, 0.000, -0.125, 0.000, 0.125, 0.000, 0.625, 0.000, 0.000, 0.000, -0.625, 0.000, 0.000, 0.000, 0.000, 0.125, 0.000, 0.000, 1.125, -0.125, 0.000, 0.000, 1.250, 0.000, 0.000, 0.000, 0.000, 0.125, -0.125, 0.000, 0.000, 0.000, -1.125, 0.000, 0.000, 0.000, 0.000, 0.125, 1.375, 0.000, 0.000, 0.000, -1.500, 0.000, 0.000, 0.125, 0.000, 0.000, 0.000, 0.000, -0.625, 0.000, 0.000, 0.000, -0.375, -0.125, 0.000, 0.000, 0.000, 0.000, 0.000, 0.000, 0.000, 0.000, 0.375, 0.000, 0.000, 0.125, 0.125, -0.500, 0.000, 0.000, 0.000, -0.125, -0.125, 0.125, -0.125, 0.000, 0.000, 0.000, 0.000, 0.125, 0.000, 0.125, 0.000, 0.000, 0.000, 0.125, 0.000, -0.125, -0.250, 0.375, 0.000, 0.250, -0.125, -1.000, -0.125, 1.375, -0.125, 0.125, -0.750, 0.375, 0.375, -0.125, -0.250, 0.000, 0.250, -0.125, 0.375, -0.375, 0.125, 0.250, -0.125, 0.000, 0.375, -0.125, -0.250, 0.000, -0.125, -0.375, 0.000, -0.250, 0.375, 0.000, -0.125, -0.250, -0.125, -0.250, 0.625, -0.125, 0.125, 0.125, -0.250, 0.250, -0.750, 0.000, 0.250, 0.250, -0.500, -0.250, 0.250, 0.000, 0.000, -0.125, 0.125, 0.000, -0.875, -0.125, 0.250, 0.000, 0.250, 0.125, 0.000, 0.000, 0.375, -0.125, 0.250, -0.375, -0.250, 0.000, -0.625, 0.000, 0.000, 0.125, 0.000, 0.125, 0.000, 0.000, 0.000, 1.000, 0.000, -0.125, 0.000, 0.250, 0.000, -0.250, 0.000, 0.500, 0.000, 0.000, 0.000, 0.000, 0.000, 0.000, -1.125, 0.375, 0.250, 0.000, 0.000, -0.125, 0.250, -0.250, 0.000, -0.125, 0.125, 0.000, 0.125, -0.125, 0.000, 0.000, 1.500, 0.000, -0.125, 0.000, -0.125, -0.125, 0.000, 0.000, 0.000, 0.000, 0.000, 0.000, -1.625, 0.000, 0.000, 0.500, 0.000, 0.000, -0.125, 0.000, -0.750, 0.125, 0.000, 0.000, 0.000, 0.000, 0.000, 0.000, -0.125, 0.000, 0.000, 0.000, -0.500, 0.000, 0.000, 0.000, 0.125, -0.125, 0.000, 0.000, 0.000, 0.000, 0.000, 0.000, 0.625, 0.000, 0.000, 1.500, 0.000, 0.000, 0.000, 0.000, -1.625, 0.000, -0.125, -0.125, 0.000, 0.000, 0.000, 0.250, 0.000, 0.250, -0.125, 0.000, 0.000, -0.250, 0.125, -0.625, 0.000, 0.000, -1.000, 0.000, -0.125, 0.000, 0.000, 1.125, 0.125, 0.000, 0.000, 0.125, -0.250, 0.375, -0.500, 0.000, 0.000, 0.000, 0.625, -0.250, 0.000, -0.125, 0.000, 0.375, -0.375, -0.625, 0.000, 0.000, 0.000, -0.250, 0.000, -0.375, 0.375, 0.250, -0.125, -0.125, 0.000, -0.125, 0.125, 0.000, 0.000, 0.000, 0.000, 0.000, 0.000, 0.000, -0.250, -0.875, 0.000, 0.375, 0.250, 0.625, 0.000, 0.375, -0.125, -1.125, -0.250, -0.125, 0.000, -0.125, 0.125, 0.000, 0.000, 1.000, 0.125, 0.250, 0.125, 0.000, 0.000, 0.000, 0.000, -0.125, 0.000, 0.000, 0.000, 0.125, 0.000, 0.250, 0.250, -0.375, 0.000, -0.250, 0.125, 0.000, 0.000, 0.125, 0.000, 0.000, 0.625, -0.625, 0.000, 0.125, -0.250, 0.250, 0.125, -0.125, -0.625, 0.500, -0.125, -0.125, 0.125, 0.125, -0.125, 0.000, 0.000, -0.125, -0.250, -0.125, -0.125, 0.125, 0.500, 0.000, -0.125, -0.750, 0.125, 0.000, 1.000, 0.375, 0.500, 0.000, 0.125, 0.000, 0.000, -1.375, 0.000, 0.000, 0.000, -0.125, -0.125, -0.125, 0.125, 0.625, -1.000, 0.000, 0.000, 0.000, 0.125, 1.000, 0.000, 0.000, 0.000, 0.375, 0.000, 0.000, 0.000, 0.000, -0.125, 0.000, 0.000, 0.000, 0.500, 0.000, 0.000, -0.125, 0.000, 1.250, 0.000, 0.125, 0.000, 0.000, 0.000, -0.125, 0.125, 0.875, -1.125, 0.000, -0.125, -0.125, 0.000, -1.000, 0.000, 0.000, 0.000, 0.375, 0.000, 0.000, 0.000, 0.000, -0.375, 0.000, 0.000, 0.125, -0.125, -0.125, 0.625, 0.500, 0.000, 0.125, -0.125, -0.250, 0.000, 0.000, -0.500, 0.125, 0.250, 0.000, 0.125, -0.375, -0.125, -0.250, 0.000, 0.000, 0.000, 0.000, -0.375, 0.500, -0.750, -0.250, 0.000, 0.375, 0.625, 0.250, 0.000, -0.250};
#endif

#endif
