//Numpy array shape [32, 16]
//Min -1.375000000000
//Max 1.500000000000
//Number of zeros 139

#ifndef W4_H_
#define W4_H_

#ifndef __SYNTHESIS__
weight4_t w4[512];
#else
weight4_t w4[512] = {0.625, 0.000, -0.375, 0.250, 0.375, -0.250, -0.250, -0.125, 0.125, 0.875, -0.375, 0.250, -0.250, 0.000, 1.000, -0.250, 0.500, -0.125, 0.125, 0.125, 0.125, 0.000, 0.000, 0.000, 0.125, 0.125, -0.125, 0.125, 0.000, 0.125, 0.000, -0.250, -0.125, 0.000, 0.500, -0.125, 0.875, 0.000, 0.125, 0.000, -0.875, 0.125, -0.125, 0.000, -0.125, 0.000, 0.250, -0.250, 0.000, 0.000, 0.000, 0.625, -0.250, -0.125, 0.500, -0.250, 0.000, 0.250, -0.375, 0.375, -0.125, -0.125, -0.125, -0.250, -0.250, 0.000, -0.375, 0.250, -0.125, 0.375, -0.250, -0.250, 0.625, -0.125, -0.250, 0.125, 0.375, 0.000, -0.375, -0.125, 0.125, -0.375, 0.000, 0.500, 0.000, 0.125, 0.125, 0.125, -0.125, -0.125, -0.500, -0.250, 0.125, 0.250, 0.125, -0.125, -0.125, -0.125, -0.375, -0.125, 0.000, 0.375, 0.750, -0.125, 0.375, -0.375, 0.000, 0.750, -1.125, 0.000, 1.000, 0.000, -0.125, -0.750, -0.250, -0.125, 0.125, 0.000, 0.000, 0.125, 0.125, 0.000, 0.000, 0.000, -0.125, 0.500, -0.125, 0.250, -0.125, 0.000, 0.500, 0.125, 0.125, 0.250, 0.000, -0.125, -0.500, 0.250, -0.125, 0.125, 0.000, 0.125, 0.250, 0.000, 0.000, 0.000, 0.625, 0.250, -0.250, 0.125, -0.125, -0.250, -0.625, 0.250, -0.250, 0.250, 0.000, 0.000, 0.250, -0.375, 1.500, 0.000, 0.250, -0.375, 0.500, 0.250, 0.375, 0.250, -0.500, -0.125, 0.250, 0.000, -0.125, 0.000, 0.000, -0.375, 0.000, 0.375, 0.000, 0.000, 0.125, 0.125, 0.125, -0.125, 0.000, 0.125, 0.125, 0.000, 0.000, -0.625, 0.000, 0.125, -0.375, 0.000, 0.250, 0.125, 0.000, 0.125, -0.125, 0.000, -0.375, 0.250, -0.125, 0.125, 0.000, 0.000, 0.250, 1.125, 0.125, -0.625, 0.000, 0.000, -0.125, 0.000, -0.125, 0.000, 0.000, 0.000, 0.000, 0.000, -0.125, 0.750, 0.000, -0.125, 0.000, 0.000, -0.250, 0.500, 0.250, -0.125, 0.375, -0.125, 0.125, 0.250, -0.500, 0.375, 0.000, 0.000, -0.125, 0.125, 0.125, -0.125, 0.125, 0.250, 0.875, 0.500, -0.375, -0.250, -0.375, 0.250, -0.375, 0.375, 0.250, 0.125, 0.000, -0.500, 0.125, 0.000, 0.500, 0.125, -0.250, -0.250, 0.125, 0.250, -0.375, 0.500, -0.125, -0.250, 1.375, 0.000, -0.125, -0.125, -0.125, 0.000, -0.125, -0.125, 0.625, -0.250, 0.250, 0.125, 0.500, -0.125, 0.250, -0.250, 0.000, 0.000, -0.125, 0.250, -0.625, 0.000, -0.125, 0.000, -0.125, 0.000, 0.125, 0.000, 0.125, 0.125, 0.000, -0.125, 0.000, 0.000, 0.125, 0.750, -0.375, 0.000, 0.625, -0.125, 0.000, 0.500, 0.500, 0.250, -0.250, -0.375, 0.125, 0.250, 0.250, 0.125, -0.375, 0.875, 0.000, -0.375, 0.125, -0.250, -0.125, 0.000, 0.125, -0.500, -0.125, 0.125, 0.500, 0.250, 0.000, 0.250, 0.000, -0.125, 0.000, 0.000, -0.250, 0.000, 0.125, 0.250, 0.000, -0.250, 0.250, -0.125, 0.000, 0.375, -0.500, 0.000, 0.125, -0.125, 0.250, 0.125, 0.125, -0.375, -0.250, -0.375, 0.500, 0.375, 0.000, 0.000, 0.375, -0.375, -0.125, -0.125, 0.250, 0.250, 0.875, 0.000, -0.500, 0.000, -0.250, 0.000, -0.250, -0.125, 0.250, -0.125, -0.250, 0.125, 0.125, -0.125, -0.125, -0.625, 0.000, 0.000, -0.125, 0.500, 0.000, 0.125, 0.000, 1.000, 0.125, -0.125, -0.500, -0.250, -0.125, 0.000, 0.125, 0.000, 0.000, 0.875, 0.000, 0.125, -0.125, 0.000, -0.125, -0.125, 0.000, -0.125, -0.125, 0.000, 0.000, -0.375, 0.000, 0.000, 0.000, 0.000, -0.375, 0.250, -0.125, 0.000, 0.000, 0.000, 0.500, 0.625, -0.250, 0.000, 0.000, 0.000, 0.375, -0.125, 0.125, 0.000, -0.250, 0.000, 0.375, 0.250, -0.125, 0.000, 0.250, 0.125, 0.250, 0.000, 0.250, 0.000, 0.250, 0.250, 0.000, 0.000, 0.250, -0.250, 0.000, 0.375, 0.375, 0.125, -0.250, -0.125, 0.125, -0.125, 0.000, 0.000, -0.250, -0.125, 0.500, -0.125, -0.625, 0.375, -0.125, 1.000, -0.500, -0.125, 0.375, 0.125, -0.625, 1.125, 0.500, -0.125, 0.125, -0.250, 0.000, -0.125, 0.000, -0.625, -0.125, 0.375, -0.125, 0.125, 0.000, -0.125, 0.625, -0.125, 0.375, 0.000, 0.500, -0.250, 0.000, 0.000, 0.000, -0.875, 0.000, -0.125, 0.000, -1.375, -0.125, 0.375, 0.875, 0.625, 0.000, 0.000, -0.125, -0.125};
#endif

#endif
