//Numpy array shape [32, 16]
//Min -2.250000000000
//Max 1.125000000000
//Number of zeros 145

#ifndef W5_H_
#define W5_H_

#ifndef __SYNTHESIS__
weight5_t w5[512];
#else
weight5_t w5[512] = {-0.250, 0.125, -0.125, 0.000, 0.000, 0.625, 0.375, 0.000, 0.000, 0.125, -0.125, 0.125, -0.125, 0.125, -0.375, 0.250, 0.625, 0.250, -0.375, 0.500, -0.250, -1.250, -0.125, -0.250, -0.125, 0.125, -0.125, 0.125, 0.125, 0.375, -1.000, -0.125, 0.250, 0.000, 0.125, 0.000, -0.250, 0.000, 0.375, 0.000, 0.250, -0.125, -0.125, 0.625, 0.000, 0.000, 0.375, 0.000, 0.000, 0.000, -0.375, -0.250, 0.125, 0.000, 0.125, 0.000, 0.000, 0.500, 0.375, 0.375, 0.000, 0.000, 0.125, 0.000, 0.500, -0.125, 0.125, 0.000, 0.250, 0.375, 0.250, -0.125, 0.000, 0.125, 0.125, 0.000, 0.250, -0.750, 0.000, 0.000, 0.000, 0.000, 0.000, -0.250, 1.000, -0.125, 0.375, -0.125, 0.000, -0.125, 0.000, 0.125, 0.000, 0.125, 0.375, 0.125, -0.125, 0.000, -0.125, 0.375, 0.250, 0.125, -0.125, 0.000, 0.000, 0.250, 0.375, -0.625, 0.125, 0.000, 0.000, 0.000, -0.125, 0.000, -0.125, -0.125, 0.250, 0.250, 0.375, 0.250, -0.125, 0.000, 0.000, 0.125, 0.125, 0.000, 0.000, -0.875, 0.375, 0.125, 0.125, 0.000, 0.375, 0.375, -0.625, 0.000, -0.125, 0.000, 0.000, 0.375, 0.000, 0.125, -0.125, 0.000, -0.250, 0.000, 0.000, 0.000, 0.000, 0.250, -0.125, 0.000, 0.125, 0.000, -0.250, 0.250, 0.750, 0.000, 0.000, 0.000, 0.250, -0.125, 0.250, 0.125, 0.375, -0.500, 0.250, 0.125, 0.250, 0.125, 0.000, 0.250, 0.125, 0.250, -0.500, 0.000, 0.125, 0.000, 0.500, 0.500, 0.125, 0.125, 0.125, 0.000, 0.000, -0.250, -0.250, -0.125, 0.000, 0.000, 0.250, 0.000, 0.125, -2.250, 0.375, 0.000, 0.000, 0.125, -0.250, -0.750, 0.875, 0.000, 0.250, 0.000, -0.125, 0.000, 0.250, 0.500, -0.125, 0.000, 0.000, 0.125, 0.000, -0.125, -0.125, 0.000, 0.000, 0.000, 0.125, 0.125, 0.125, 1.000, 0.125, 0.000, 0.625, 0.000, 0.000, 0.000, 0.125, 0.250, 0.500, 0.000, -0.125, 0.000, 0.500, -0.125, -0.500, 0.375, 0.000, -0.125, 0.000, -0.125, 0.125, -0.125, 0.000, 0.125, 0.125, 1.125, 0.125, -0.125, 0.250, 0.250, 0.125, -0.125, 0.125, -1.125, 0.000, 0.875, -0.125, 0.000, 0.000, -0.250, 0.000, 0.000, -0.250, 0.000, -0.125, 0.000, 0.000, 0.000, -0.125, 0.000, 0.250, 0.125, -0.250, -0.125, 0.125, 0.125, 0.000, 0.000, 0.250, 0.375, -0.375, -0.250, -0.125, 0.125, 0.250, -0.125, 0.125, 0.125, 0.000, 0.125, -0.125, 0.625, 0.125, 0.000, 0.000, 0.125, 0.250, 0.125, 0.125, 0.125, 0.625, 0.000, -0.125, 0.000, -0.125, 0.250, -0.125, 0.125, 0.000, 0.250, 0.000, -0.125, -0.125, 0.125, 0.000, 0.125, 0.000, 0.125, 0.875, -0.125, 0.000, -0.125, 0.000, -0.625, -0.250, -0.125, -0.125, -0.125, 0.250, -0.125, 0.375, 0.125, 0.250, -0.125, 0.250, 0.000, -0.125, 0.250, -0.125, 0.000, 0.125, -0.250, -0.125, -0.125, 0.125, -0.250, -0.250, -0.125, -0.250, 0.250, -0.125, -0.125, -0.125, -0.125, 0.000, -0.250, -0.250, -0.375, 0.125, 0.250, 0.125, 0.000, 0.125, 0.125, -0.250, 0.125, -0.125, -0.125, 0.250, 0.125, 0.125, 0.125, 0.000, 0.250, 0.125, 0.000, 0.125, 0.250, 0.125, 0.250, -0.125, 0.250, 0.000, 0.000, 0.000, 0.000, -0.250, 0.000, 0.625, -0.125, 0.250, 0.000, 0.125, -0.125, 0.125, 0.125, 0.250, 0.000, 0.250, 0.000, -0.125, -0.125, -0.125, 0.000, -0.125, -1.250, -0.250, -0.125, -0.125, -0.125, 0.125, 0.250, -0.125, 1.000, 0.125, 0.000, -0.125, -0.125, 0.125, -0.250, 0.125, 0.250, 0.125, -0.125, 0.000, -0.125, 0.250, -0.250, -0.125, 0.000, -0.250, 0.000, -0.250, -0.125, -0.125, 0.000, -0.250, 0.250, -0.250, -0.125, 0.125, 0.000, 0.000, 0.250, 0.125, -0.125, -0.125, 0.000, 0.500, 0.000, 0.000, 0.125, 0.125, -0.125, -0.250, -0.250, 0.500, 0.250, 0.125, 0.000, 0.000, 0.125, -0.125, -0.750, 0.125, -0.125, 0.250, 0.625, 0.125, 0.125, 0.500, -0.125, 0.250, 0.250, 0.000, 0.000, 0.250, -0.250, 0.000, -0.125, -0.250, 0.625, 0.125, -1.125, 0.000, -0.625, -0.125, 0.250, -0.250, 0.000, -0.125, 0.000, -1.125, 0.500, 0.000, 0.000, -0.125, 0.875, -0.125, -0.250, 0.000, 0.000, -0.250, 0.500, -0.250, 0.375, -0.250, 0.000, -1.250, -0.250};
#endif

#endif
