//Numpy array shape [16, 13]
//Min -0.625000000000
//Max 0.625000000000
//Number of zeros 51

#ifndef W7_H_
#define W7_H_

#ifndef __SYNTHESIS__
weight7_t w7[208];
#else
weight7_t w7[208] = {-0.250, -0.125, 0.375, 0.000, -0.125, 0.000, 0.125, -0.125, 0.250, -0.375, 0.125, 0.000, -0.500, -0.250, 0.000, -0.250, 0.375, 0.000, 0.125, 0.125, -0.125, 0.250, 0.250, 0.375, 0.500, 0.000, 0.125, -0.125, 0.250, -0.125, 0.000, 0.000, 0.125, 0.500, -0.125, 0.125, -0.125, 0.125, -0.250, -0.250, 0.000, 0.375, -0.250, 0.000, 0.125, -0.375, 0.125, -0.125, 0.375, 0.000, 0.250, 0.000, 0.125, -0.500, 0.000, 0.250, 0.500, 0.125, 0.000, 0.125, -0.250, 0.125, 0.375, -0.375, 0.125, 0.250, 0.250, -0.375, -0.250, -0.125, 0.000, -0.375, -0.250, -0.125, 0.375, 0.250, -0.125, -0.375, 0.250, -0.125, 0.000, -0.375, -0.375, 0.000, 0.500, 0.000, 0.125, 0.125, 0.375, 0.125, 0.375, -0.250, 0.250, -0.125, 0.000, 0.125, 0.000, 0.000, 0.375, 0.250, 0.125, 0.250, -0.125, -0.125, 0.000, 0.250, 0.125, -0.625, 0.125, 0.000, -0.125, 0.000, -0.250, -0.375, -0.125, -0.375, 0.250, -0.500, 0.125, -0.250, 0.000, 0.000, 0.000, -0.125, -0.500, 0.000, 0.000, 0.000, -0.375, 0.250, 0.250, -0.125, 0.250, 0.250, -0.125, 0.125, 0.000, 0.000, 0.500, 0.375, -0.625, -0.375, 0.000, 0.000, -0.125, -0.625, 0.125, -0.375, 0.125, 0.250, 0.375, -0.250, -0.250, -0.250, 0.000, -0.250, -0.250, 0.625, 0.250, 0.500, 0.000, 0.000, 0.250, 0.125, -0.500, 0.250, -0.125, 0.000, 0.250, 0.000, 0.000, -0.250, -0.125, 0.375, 0.000, -0.375, 0.250, 0.250, -0.250, -0.250, 0.375, 0.375, 0.500, 0.500, 0.000, 0.375, 0.250, 0.000, 0.000, -0.125, 0.250, -0.375, 0.125, 0.125, -0.125, 0.250, -0.250, 0.000, 0.000, 0.000, 0.000, 0.000, -0.625, -0.375, 0.000, -0.250, 0.250, 0.000};
#endif

#endif
